{
  "backend": "pytorch",
  "auc": 0.6989235526858177,
  "auc_fast": 0.7217396636092855,
  "auc_mid": 0.6961541233897145,
  "vol_mae": 0.0071012824836355,
  "vol_r2": -23.62770490849193,
  "seq_length": 48,
  "hidden_size": 256,
  "num_layers": 2,
  "dropout": 0.3,
  "device": "cuda",
  "epochs": 60,
  "model_version": 2,
  "task_heads": [
    "direction_1",
    "direction_3",
    "future_volatility"
  ],
  "direction_blend_weights": [
    0.35,
    0.65
  ],
  "norm_mean": [
    -1.563603655085899e-05,
    -4.71638013550546e-05,
    -9.499200677964836e-05,
    -0.00019040431652683765,
    -1.8648619516170584e-05,
    0.4994547367095947,
    0.09714187681674957,
    0.09905033558607101,
    -6.614930316573009e-05,
    -0.00018666395044419914,
    -0.0004563994880300015,
    -0.001831906964071095,
    -0.3143767714500427,
    -0.7049638032913208,
    -0.33934158086776733,
    -0.34006166458129883,
    0.0007201146217994392,
    24.947772979736328,
    34.76506805419922,
    35.84681701660156,
    -1.0817457437515259,
    49.52237319946289,
    49.66737747192383,
    50.354915618896484,
    50.35735321044922,
    -49.64781188964844,
    -2.4074385166168213,
    47.83451843261719,
    -0.0094992034137249,
    -0.019040431827306747,
    4.791256904602051,
    0.0021072574891149998,
    0.21072575449943542,
    0.01293246541172266,
    0.49082282185554504,
    0.0020393633749336004,
    0.002102327300235629,
    0.002186182653531432,
    0.9420560002326965,
    1.0542716979980469,
    0.00018815509974956512,
    0.49746018648147583,
    0.4974210560321808,
    0.6217406988143921,
    0.6217960119247437,
    0.6219231486320496,
    -0.00012713493197225034,
    -3.2155076041817665e-05,
    1.4829905921942554e-05,
    1.4822481716691982e-05,
    0.004920928739011288,
    -4.71638013550546e-05,
    -0.00019040431652683765,
    0.0098660783842206,
    -4.745660044136457e-05,
    -0.00014359371562022716,
    49.04179382324219,
    0.004409399349242449,
    -0.0005608589272014797,
    0.003497017314657569,
    1.0661753416061401,
    -0.00019553984748199582,
    -0.0005832136957906187,
    47.92856979370117,
    0.010044580325484276,
    -0.0022091905120760202,
    0.006609872914850712,
    1.0611103773117065,
    -0.006015411578118801,
    -0.020167218521237373,
    0.018785974010825157,
    0.2462988942861557,
    1.9366499185562134,
    -4.690360583481379e-05,
    -6.313679477898404e-05,
    0.9420560002326965,
    -0.0010794630507007241,
    -0.006235586479306221,
    0.05616200342774391,
    0.785625696182251,
    -1.1399888535379432e-05,
    -6.958944868529215e-05,
    0.6084948182106018,
    -1.1384989193174988e-05,
    -1.1362976692907978e-05,
    0.0006291118334047496,
    0.005722285248339176,
    -1.6040372429415584e-05,
    -1.6075529856607318e-05,
    -1.6021309420466423e-05,
    4.8492047426407225e-06,
    -1.863517718447838e-05,
    -0.00011318176257191226,
    0.5070450901985168,
    -1.8568747691460885e-05,
    -1.8449933122610673e-05,
    1.8189752154285088e-05,
    0.002551095560193062,
    -0.002605903660878539,
    0.27731192111968994,
    0.0,
    0.0,
    0.0,
    0.0,
    0.0,
    0.0,
    0.0,
    0.0,
    0.0,
    0.0,
    0.0,
    0.0,
    0.0,
    0.046129267662763596,
    -0.0007804568158462644,
    -0.000655316689517349,
    -0.0014451023889705539,
    -0.0005413962062448263,
    0.008074336685240269,
    -0.00014650836237706244,
    0.046178076416254044,
    0.016769280657172203,
    -0.0007889788248576224,
    -0.0006634630262851715,
    -0.0005375975742936134,
    0.008076236583292484,
    -0.00015170892584137619,
    0.046413686126470566,
    0.02066105231642723,
    -0.0007742872694507241,
    -0.000641315127722919,
    -0.0005220652092248201,
    0.008084002882242203,
    -0.0001863801444415003,
    0.016690069809556007,
    -0.00017605906759854406,
    -0.00015207030810415745,
    -0.00016855844296514988,
    -0.00015048962086439133,
    -0.00011247127986280248,
    -0.00015413149958476424,
    7.3500336839060765e-06,
    1.3083651065826416,
    0.6767397522926331,
    0.6113266944885254,
    1.3130992650985718,
    0.43769973516464233,
    -0.11462581902742386,
    0.29087260365486145,
    0.22054162621498108,
    0.4252758324146271,
    0.1794583797454834,
    0.17472417652606964
  ],
  "norm_std": [
    0.002455703215673566,
    0.0041570221073925495,
    0.005750339478254318,
    0.007934226654469967,
    0.002454026835039258,
    0.4207092225551605,
    0.20474764704704285,
    0.20660868287086487,
    0.0028971254359930754,
    0.004949788097292185,
    0.007691392209380865,
    0.015591232106089592,
    6.108208656311035,
    8.5357666015625,
    5.689389705657959,
    5.339169025421143,
    1.7584012746810913,
    10.866003036499023,
    12.547713279724121,
    12.635215759277344,
    21.791831970214844,
    11.575119018554688,
    17.89502716064453,
    28.362777709960938,
    27.32172966003418,
    31.09128189086914,
    107.98051452636719,
    26.803466796875,
    0.5750330090522766,
    0.7934216260910034,
    3.3254170417785645,
    0.0015196696622297168,
    0.15196597576141357,
    0.010863548144698143,
    0.3254671096801758,
    0.0013906479580327868,
    0.0012836965033784509,
    0.0011233529075980186,
    0.384878933429718,
    1.9743410348892212,
    0.00997014157474041,
    0.35293111205101013,
    0.09744302928447723,
    0.33783137798309326,
    0.1503695398569107,
    0.09083778411149979,
    0.09280642867088318,
    0.005541290622204542,
    7.77633540565148e-05,
    2.1449110136018135e-05,
    0.03427140414714813,
    0.0041570221073925495,
    0.007934226654469967,
    0.008269071578979492,
    0.004115106072276831,
    0.006882337853312492,
    11.307109832763672,
    0.002504701027646661,
    0.008345629088580608,
    0.002213964704424143,
    1.6378785371780396,
    0.0075011057779192924,
    0.013006324879825115,
    12.894289016723633,
    0.004488431382924318,
    0.016699885949492455,
    0.0035473378375172615,
    1.2677570581436157,
    1.0103086233139038,
    0.01830243691802025,
    0.017519783228635788,
    0.772625207901001,
    4.258295059204102,
    0.0022076338063925505,
    0.0021462158765643835,
    0.384878933429718,
    10.68993854522705,
    0.17110371589660645,
    0.3505125939846039,
    0.3245825171470642,
    0.0018500853329896927,
    0.0042458707466721535,
    0.2589772641658783,
    0.0018500866135582328,
    0.0018500960431993008,
    0.0011459698434919119,
    1.0259499549865723,
    0.002292557153850794,
    0.00229255435988307,
    0.002292570425197482,
    1.0588491932139732e-05,
    0.002697677817195654,
    0.006266448181122541,
    0.2549631893634796,
    0.002697677118703723,
    0.0026977425441145897,
    0.0035838931798934937,
    0.707109272480011,
    0.7070948481559753,
    0.4476717710494995,
    9.99999993922529e-09,
    9.99999993922529e-09,
    9.99999993922529e-09,
    9.99999993922529e-09,
    9.99999993922529e-09,
    9.99999993922529e-09,
    9.99999993922529e-09,
    9.99999993922529e-09,
    9.99999993922529e-09,
    9.99999993922529e-09,
    9.99999993922529e-09,
    9.99999993922529e-09,
    9.99999993922529e-09,
    0.41537803411483765,
    0.07975031435489655,
    0.07135570049285889,
    0.03891972452402115,
    0.017194954678416252,
    0.06253491342067719,
    0.13400191068649292,
    0.3802398443222046,
    0.2049393355846405,
    0.0505366176366806,
    0.059344589710235596,
    0.015522529371082783,
    0.06244039908051491,
    0.07604224234819412,
    0.36803218722343445,
    0.20374196767807007,
    0.03537202998995781,
    0.05374257639050484,
    0.013482215814292431,
    0.062383051961660385,
    0.04617539048194885,
    0.12810742855072021,
    0.13392063975334167,
    0.13386711478233337,
    0.13384178280830383,
    0.13381139934062958,
    0.13367675244808197,
    0.07751012593507767,
    0.05949665233492851,
    1.0019019842147827,
    0.27716752886772156,
    0.09254773706197739,
    1.0075058937072754,
    0.3358353078365326,
    0.2101588100194931,
    0.45416489243507385,
    0.4146118760108948,
    0.4943848252296448,
    0.38373568654060364,
    0.37973102927207947
  ]
}